digraph Tree {
node [shape=box] ;
0 [label="X[105] <= -0.01\ngini = 0.626\nsamples = 16096\nvalue = [6836, 2707, 6553]"] ;
1 [label="X[147] <= 0.046\ngini = 0.623\nsamples = 10001\nvalue = [4511, 1687, 3803]"] ;
0 -> 1 [labeldistance=2.5, labelangle=45, headlabel="True"] ;
2 [label="X[95] <= -0.002\ngini = 0.627\nsamples = 9038\nvalue = [3983, 1573, 3482]"] ;
1 -> 2 ;
3 [label="X[86] <= 0.131\ngini = 0.625\nsamples = 5294\nvalue = [2461, 941, 1892]"] ;
2 -> 3 ;
4 [label="X[95] <= -0.015\ngini = 0.614\nsamples = 4061\nvalue = [1962, 652, 1447]"] ;
3 -> 4 ;
5 [label="X[147] <= -0.036\ngini = 0.589\nsamples = 1550\nvalue = [811, 202, 537]"] ;
4 -> 5 ;
6 [label="gini = 0.601\nsamples = 822\nvalue = [395, 108, 319]"] ;
5 -> 6 ;
7 [label="gini = 0.567\nsamples = 728\nvalue = [416, 94, 218]"] ;
5 -> 7 ;
8 [label="X[176] <= -0.012\ngini = 0.626\nsamples = 2511\nvalue = [1151, 450, 910]"] ;
4 -> 8 ;
9 [label="X[162] <= -0.014\ngini = 0.62\nsamples = 1265\nvalue = [618, 231, 416]"] ;
8 -> 9 ;
10 [label="gini = 0.62\nsamples = 609\nvalue = [277, 99, 233]"] ;
9 -> 10 ;
11 [label="gini = 0.611\nsamples = 656\nvalue = [341, 132, 183]"] ;
9 -> 11 ;
12 [label="X[165] <= -0.233\ngini = 0.629\nsamples = 1246\nvalue = [533, 219, 494]"] ;
8 -> 12 ;
13 [label="gini = 0.64\nsamples = 646\nvalue = [248, 130, 268]"] ;
12 -> 13 ;
14 [label="gini = 0.61\nsamples = 600\nvalue = [285, 89, 226]"] ;
12 -> 14 ;
15 [label="X[114] <= -0.069\ngini = 0.651\nsamples = 1233\nvalue = [499, 289, 445]"] ;
3 -> 15 ;
16 [label="gini = 0.637\nsamples = 621\nvalue = [252, 119, 250]"] ;
15 -> 16 ;
17 [label="gini = 0.658\nsamples = 612\nvalue = [247, 170, 195]"] ;
15 -> 17 ;
18 [label="X[105] <= -0.144\ngini = 0.626\nsamples = 3744\nvalue = [1522, 632, 1590]"] ;
2 -> 18 ;
19 [label="X[118] <= -0.08\ngini = 0.622\nsamples = 3129\nvalue = [1329, 505, 1295]"] ;
18 -> 19 ;
20 [label="gini = 0.607\nsamples = 917\nvalue = [450, 136, 331]"] ;
19 -> 20 ;
21 [label="X[1] <= -0.127\ngini = 0.624\nsamples = 2212\nvalue = [879, 369, 964]"] ;
19 -> 21 ;
22 [label="X[85] <= -0.293\ngini = 0.624\nsamples = 1610\nvalue = [679, 266, 665]"] ;
21 -> 22 ;
23 [label="gini = 0.609\nsamples = 710\nvalue = [277, 101, 332]"] ;
22 -> 23 ;
24 [label="gini = 0.63\nsamples = 900\nvalue = [402, 165, 333]"] ;
22 -> 24 ;
25 [label="gini = 0.614\nsamples = 602\nvalue = [200, 103, 299]"] ;
21 -> 25 ;
26 [label="gini = 0.629\nsamples = 615\nvalue = [193, 127, 295]"] ;
18 -> 26 ;
27 [label="gini = 0.574\nsamples = 963\nvalue = [528, 114, 321]"] ;
1 -> 27 ;
28 [label="X[160] <= 0.338\ngini = 0.623\nsamples = 6095\nvalue = [2325, 1020, 2750]"] ;
0 -> 28 [labeldistance=2.5, labelangle=-45, headlabel="False"] ;
29 [label="X[111] <= 0.012\ngini = 0.615\nsamples = 3362\nvalue = [1179, 553, 1630]"] ;
28 -> 29 ;
30 [label="gini = 0.625\nsamples = 950\nvalue = [389, 159, 402]"] ;
29 -> 30 ;
31 [label="X[58] <= -0.197\ngini = 0.607\nsamples = 2412\nvalue = [790, 394, 1228]"] ;
29 -> 31 ;
32 [label="gini = 0.581\nsamples = 1087\nvalue = [377, 130, 580]"] ;
31 -> 32 ;
33 [label="X[164] <= -0.075\ngini = 0.624\nsamples = 1325\nvalue = [413, 264, 648]"] ;
31 -> 33 ;
34 [label="gini = 0.648\nsamples = 621\nvalue = [218, 142, 261]"] ;
33 -> 34 ;
35 [label="gini = 0.591\nsamples = 704\nvalue = [195, 122, 387]"] ;
33 -> 35 ;
36 [label="X[87] <= -0.148\ngini = 0.627\nsamples = 2733\nvalue = [1146, 467, 1120]"] ;
28 -> 36 ;
37 [label="X[85] <= -0.226\ngini = 0.612\nsamples = 1664\nvalue = [664, 242, 758]"] ;
36 -> 37 ;
38 [label="gini = 0.623\nsamples = 995\nvalue = [421, 161, 413]"] ;
37 -> 38 ;
39 [label="gini = 0.587\nsamples = 669\nvalue = [243, 81, 345]"] ;
37 -> 39 ;
40 [label="gini = 0.638\nsamples = 1069\nvalue = [482, 225, 362]"] ;
36 -> 40 ;
}
